digraph Tree {
node [shape=box, style="filled, rounded", color="black", fontname=helvetica] ;
edge [fontname=helvetica] ;
0 [label=<ob &le; -0.517<br/>mse = 17.536<br/>samples = 320527<br/>value = -0.0>, fillcolor="#e58139d5"] ;
1 [label=<event &le; 0.117<br/>mse = 18.176<br/>samples = 63326<br/>value = -1.267>, fillcolor="#e58139b9"] ;
0 -> 1 [labeldistance=2.5, labelangle=45, headlabel="True"] ;
2 [label=<bevent &le; 0.117<br/>mse = 16.374<br/>samples = 41282<br/>value = -1.961>, fillcolor="#e58139aa"] ;
1 -> 2 ;
3 [label=<event &le; -0.721<br/>mse = 17.716<br/>samples = 29859<br/>value = -1.506>, fillcolor="#e58139b4"] ;
2 -> 3 ;
4 [label=<mse = 16.757<br/>samples = 16606<br/>value = -2.06>, fillcolor="#e58139a8"] ;
3 -> 4 ;
5 [label=<mse = 18.048<br/>samples = 13253<br/>value = -0.811>, fillcolor="#e58139c3"] ;
3 -> 5 ;
6 [label=<niftyidevent &le; -0.673<br/>mse = 10.91<br/>samples = 11423<br/>value = -3.15>, fillcolor="#e5813990"] ;
2 -> 6 ;
7 [label=<mse = 11.535<br/>samples = 2903<br/>value = -3.512>, fillcolor="#e5813988"] ;
6 -> 7 ;
8 [label=<mse = 10.637<br/>samples = 8520<br/>value = -3.027>, fillcolor="#e5813992"] ;
6 -> 8 ;
9 [label=<bevent &le; 0.117<br/>mse = 18.959<br/>samples = 22044<br/>value = 0.033>, fillcolor="#e58139d6"] ;
1 -> 9 ;
10 [label=<btrade &le; -2.93<br/>mse = 11.764<br/>samples = 3321<br/>value = -3.273>, fillcolor="#e581398d"] ;
9 -> 10 ;
11 [label=<mse = 3.087<br/>samples = 4<br/>value = -9.645>, fillcolor="#e5813900"] ;
10 -> 11 ;
12 [label=<mse = 11.725<br/>samples = 3317<br/>value = -3.266>, fillcolor="#e581398d"] ;
10 -> 12 ;
13 [label=<trade &le; -0.676<br/>mse = 17.951<br/>samples = 18723<br/>value = 0.62>, fillcolor="#e58139e3"] ;
9 -> 13 ;
14 [label=<mse = 19.424<br/>samples = 4747<br/>value = -0.692>, fillcolor="#e58139c6"] ;
13 -> 14 ;
15 [label=<mse = 16.668<br/>samples = 13976<br/>value = 1.065>, fillcolor="#e58139ed"] ;
13 -> 15 ;
16 [label=<ob &le; 0.383<br/>mse = 16.886<br/>samples = 257201<br/>value = 0.311>, fillcolor="#e58139dc"] ;
0 -> 16 [labeldistance=2.5, labelangle=-45, headlabel="False"] ;
17 [label=<event &le; 0.653<br/>mse = 16.46<br/>samples = 180132<br/>value = 0.792>, fillcolor="#e58139e7"] ;
16 -> 17 ;
18 [label=<bevent &le; 0.653<br/>mse = 16.352<br/>samples = 134484<br/>value = 0.629>, fillcolor="#e58139e3"] ;
17 -> 18 ;
19 [label=<mse = 15.858<br/>samples = 124021<br/>value = 0.905>, fillcolor="#e58139e9"] ;
18 -> 19 ;
20 [label=<mse = 10.631<br/>samples = 10463<br/>value = -2.639>, fillcolor="#e581399b"] ;
18 -> 20 ;
21 [label=<bevent &le; 0.652<br/>mse = 16.469<br/>samples = 45648<br/>value = 1.271>, fillcolor="#e58139f1"] ;
17 -> 21 ;
22 [label=<mse = 10.593<br/>samples = 6021<br/>value = -2.802>, fillcolor="#e5813997"] ;
21 -> 22 ;
23 [label=<mse = 14.458<br/>samples = 39627<br/>value = 1.89>, fillcolor="#e58139ff"] ;
21 -> 23 ;
24 [label=<event &le; -0.378<br/>mse = 16.082<br/>samples = 77069<br/>value = -0.811>, fillcolor="#e58139c3"] ;
16 -> 24 ;
25 [label=<bevent &le; -0.377<br/>mse = 17.046<br/>samples = 20465<br/>value = 0.272>, fillcolor="#e58139db"] ;
24 -> 25 ;
26 [label=<mse = 16.708<br/>samples = 16834<br/>value = 0.822>, fillcolor="#e58139e7"] ;
25 -> 26 ;
27 [label=<mse = 10.704<br/>samples = 3631<br/>value = -2.279>, fillcolor="#e58139a3"] ;
25 -> 27 ;
28 [label=<bevent &le; -0.378<br/>mse = 15.156<br/>samples = 56604<br/>value = -1.203>, fillcolor="#e58139bb"] ;
24 -> 28 ;
29 [label=<mse = 10.318<br/>samples = 11970<br/>value = -2.65>, fillcolor="#e581399b"] ;
28 -> 29 ;
30 [label=<mse = 15.741<br/>samples = 44634<br/>value = -0.815>, fillcolor="#e58139c3"] ;
28 -> 30 ;
}